digraph Tree {
node [shape=box, style="filled, rounded", color="black", fontname="helvetica"] ;
edge [fontname="helvetica"] ;
0 [label="petal width (cm) <= 0.8\ngini = 0.66\nsamples = 95\nvalue = [43, 52, 55]\nclass = virginica", fillcolor="#fbf9fe"] ;
1 [label="gini = 0.0\nsamples = 29\nvalue = [43, 0, 0]\nclass = setosa", fillcolor="#e58139"] ;
0 -> 1 [labeldistance=2.5, labelangle=45, headlabel="True"] ;
2 [label="petal length (cm) <= 4.75\ngini = 0.5\nsamples = 66\nvalue = [0, 52, 55]\nclass = virginica", fillcolor="#f8f4fe"] ;
0 -> 2 [labeldistance=2.5, labelangle=-45, headlabel="False"] ;
3 [label="gini = 0.0\nsamples = 31\nvalue = [0, 49, 0]\nclass = versicolor", fillcolor="#39e581"] ;
2 -> 3 ;
4 [label="petal width (cm) <= 1.7\ngini = 0.1\nsamples = 35\nvalue = [0, 3, 55]\nclass = virginica", fillcolor="#8844e6"] ;
2 -> 4 ;
5 [label="sepal width (cm) <= 2.65\ngini = 0.44\nsamples = 4\nvalue = [0, 2, 4]\nclass = virginica", fillcolor="#c09cf2"] ;
4 -> 5 ;
6 [label="gini = 0.0\nsamples = 2\nvalue = [0, 0, 4]\nclass = virginica", fillcolor="#8139e5"] ;
5 -> 6 ;
7 [label="gini = 0.0\nsamples = 2\nvalue = [0, 2, 0]\nclass = versicolor", fillcolor="#39e581"] ;
5 -> 7 ;
8 [label="petal length (cm) <= 4.85\ngini = 0.04\nsamples = 31\nvalue = [0, 1, 51]\nclass = virginica", fillcolor="#833de6"] ;
4 -> 8 ;
9 [label="sepal width (cm) <= 3.0\ngini = 0.38\nsamples = 2\nvalue = [0, 1, 3]\nclass = virginica", fillcolor="#ab7bee"] ;
8 -> 9 ;
10 [label="gini = 0.0\nsamples = 1\nvalue = [0, 0, 3]\nclass = virginica", fillcolor="#8139e5"] ;
9 -> 10 ;
11 [label="gini = 0.0\nsamples = 1\nvalue = [0, 1, 0]\nclass = versicolor", fillcolor="#39e581"] ;
9 -> 11 ;
12 [label="gini = 0.0\nsamples = 29\nvalue = [0, 0, 48]\nclass = virginica", fillcolor="#8139e5"] ;
8 -> 12 ;
}